<?xml version="1.0"?>
<opencv_storage>
<output type_id="opencv-haar-classifier">
  <size>
    20 20</size>
  <stages>
    <_>
      <trees>
        <_>
          <_>
            <feature>
              <rects>
                <_>
                  0 0 20 16 -1.</_>
                <_>
                  5 0 10 16 2.</_></rects>
              <tilted>0</tilted></feature>
            <threshold>-0.4546222984790802</threshold>
            <left_val>1.</left_val>
            <right_val>-1.0000009536743164</right_val></_></_></trees>
      <stage_threshold>1.</stage_threshold>
      <parent>-1</parent>
      <next>-1</next></_>
    <_>
      <trees>
        <_>
          <_>
            <feature>
              <rects>
                <_>
                  0 8 20 8 -1.</_>
                <_>
                  5 8 10 8 2.</_></rects>
              <tilted>0</tilted></feature>
            <threshold>-0.3384985923767090</threshold>
            <left_val>0.8938056230545044</left_val>
            <right_val>-1.0000020265579224</right_val></_></_></trees>
      <stage_threshold>0.8938056230545044</stage_threshold>
      <parent>0</parent>
      <next>-1</next></_>
    <_>
      <trees>
        <_>
          <_>
            <feature>
              <rects>
                <_>
                  3 0 7 2 -1.</_>
                <_>
                  3 1 7 1 2.</_></rects>
              <tilted>0</tilted></feature>
            <threshold>-9.4307074323296547e-003</threshold>
            <left_val>0.9107143282890320</left_val>
            <right_val>-1.0000009536743164</right_val></_></_></trees>
      <stage_threshold>0.9107143282890320</stage_threshold>
      <parent>1</parent>
      <next>-1</next></_>
    <_>
      <trees>
        <_>
          <_>
            <feature>
              <rects>
                <_>
                  6 2 7 2 -1.</_>
                <_>
                  6 2 7 1 2.</_></rects>
              <tilted>1</tilted></feature>
            <threshold>6.5363710746169090e-003</threshold>
            <left_val>-1.</left_val>
            <right_val>0.6589140892028809</right_val></_></_></trees>
      <stage_threshold>0.6589140892028809</stage_threshold>
      <parent>2</parent>
      <next>-1</next></_>
    <_>
      <trees>
        <_>
          <_>
            <feature>
              <rects>
                <_>
                  5 3 2 3 -1.</_>
                <_>
                  5 3 1 3 2.</_></rects>
              <tilted>1</tilted></feature>
            <threshold>2.4501429870724678e-003</threshold>
            <left_val>0.7685955166816711</left_val>
            <right_val>-1.0000009536743164</right_val></_></_></trees>
      <stage_threshold>0.7685955166816711</stage_threshold>
      <parent>3</parent>
      <next>-1</next></_>
    <_>
      <trees>
        <_>
          <_>
            <feature>
              <rects>
                <_>
                  0 0 8 19 -1.</_>
                <_>
                  2 0 4 19 2.</_></rects>
              <tilted>0</tilted></feature>
            <threshold>-0.0432266704738140</threshold>
            <left_val>0.7983192801475525</left_val>
            <right_val>-1.0000020265579224</right_val></_></_></trees>
      <stage_threshold>0.7983192801475525</stage_threshold>
      <parent>4</parent>
      <next>-1</next></_>
    <_>
      <trees>
        <_>
          <_>
            <feature>
              <rects>
                <_>
                  0 3 1 2 -1.</_>
                <_>
                  0 4 1 1 2.</_></rects>
              <tilted>0</tilted></feature>
            <threshold>1.2698599311988801e-004</threshold>
            <left_val>1.</left_val>
            <right_val>-1.0000009536743164</right_val></_></_></trees>
      <stage_threshold>1.</stage_threshold>
      <parent>5</parent>
      <next>-1</next></_></stages></output>
</opencv_storage>
